tree
num_class=1
num_tree_per_iteration=1
label_index=0
max_feature_idx=299
objective=regression
feature_names=Column_0 Column_1 Column_2 Column_3 Column_4 Column_5 Column_6 Column_7 Column_8 Column_9 Column_10 Column_11 Column_12 Column_13 Column_14 Column_15 Column_16 Column_17 Column_18 Column_19 Column_20 Column_21 Column_22 Column_23 Column_24 Column_25 Column_26 Column_27 Column_28 Column_29 Column_30 Column_31 Column_32 Column_33 Column_34 Column_35 Column_36 Column_37 Column_38 Column_39 Column_40 Column_41 Column_42 Column_43 Column_44 Column_45 Column_46 Column_47 Column_48 Column_49 Column_50 Column_51 Column_52 Column_53 Column_54 Column_55 Column_56 Column_57 Column_58 Column_59 Column_60 Column_61 Column_62 Column_63 Column_64 Column_65 Column_66 Column_67 Column_68 Column_69 Column_70 Column_71 Column_72 Column_73 Column_74 Column_75 Column_76 Column_77 Column_78 Column_79 Column_80 Column_81 Column_82 Column_83 Column_84 Column_85 Column_86 Column_87 Column_88 Column_89 Column_90 Column_91 Column_92 Column_93 Column_94 Column_95 Column_96 Column_97 Column_98 Column_99 Column_100 Column_101 Column_102 Column_103 Column_104 Column_105 Column_106 Column_107 Column_108 Column_109 Column_110 Column_111 Column_112 Column_113 Column_114 Column_115 Column_116 Column_117 Column_118 Column_119 Column_120 Column_121 Column_122 Column_123 Column_124 Column_125 Column_126 Column_127 Column_128 Column_129 Column_130 Column_131 Column_132 Column_133 Column_134 Column_135 Column_136 Column_137 Column_138 Column_139 Column_140 Column_141 Column_142 Column_143 Column_144 Column_145 Column_146 Column_147 Column_148 Column_149 Column_150 Column_151 Column_152 Column_153 Column_154 Column_155 Column_156 Column_157 Column_158 Column_159 Column_160 Column_161 Column_162 Column_163 Column_164 Column_165 Column_166 Column_167 Column_168 Column_169 Column_170 Column_171 Column_172 Column_173 Column_174 Column_175 Column_176 Column_177 Column_178 Column_179 Column_180 Column_181 Column_182 Column_183 Column_184 Column_185 Column_186 Column_187 Column_188 Column_189 Column_190 Column_191 Column_192 Column_193 Column_194 Column_195 Column_196 Column_197 Column_198 Column_199 Column_200 Column_201 Column_202 Column_203 Column_204 Column_205 Column_206 Column_207 Column_208 Column_209 Column_210 Column_211 Column_212 Column_213 Column_214 Column_215 Column_216 Column_217 Column_218 Column_219 Column_220 Column_221 Column_222 Column_223 Column_224 Column_225 Column_226 Column_227 Column_228 Column_229 Column_230 Column_231 Column_232 Column_233 Column_234 Column_235 Column_236 Column_237 Column_238 Column_239 Column_240 Column_241 Column_242 Column_243 Column_244 Column_245 Column_246 Column_247 Column_248 Column_249 Column_250 Column_251 Column_252 Column_253 Column_254 Column_255 Column_256 Column_257 Column_258 Column_259 Column_260 Column_261 Column_262 Column_263 Column_264 Column_265 Column_266 Column_267 Column_268 Column_269 Column_270 Column_271 Column_272 Column_273 Column_274 Column_275 Column_276 Column_277 Column_278 Column_279 Column_280 Column_281 Column_282 Column_283 Column_284 Column_285 Column_286 Column_287 Column_288 Column_289 Column_290 Column_291 Column_292 Column_293 Column_294 Column_295 Column_296 Column_297 Column_298 Column_299
feature_infos=[-0.098714192708333329:0.2451171875] [-0.15006510416666666:0.197998046875] [-0.260986328125:0.16337890625000001] [-0.16162109375:0.25537109375] [-0.23193359375:0.1015625] [-0.1475830078125:0.244140625] [-0.296875:0.24560546875] [-0.267578125:0.2890625] [-0.166015625:0.31494140625] [-0.13802083333333334:0.28339843749999999] [-0.2499237060546875:0.16748046875] [-0.27229817708333331:0.030029296875] [-0.212310791015625:0.251953125] [-0.1544189453125:0.23681640625] [-0.26863606770833331:0.15625] [-0.10498046875:0.34309895833333331] [-0.140625:0.25439453125] [-0.061116536458333336:0.32171630859375] [-0.17633056640625:0.168975830078125] [-0.43359375:0.19970703125] [-0.22395833333333334:0.228515625] [-0.1865234375:0.325439453125] [-0.17352294921875:0.31406250000000002] [-0.21875:0.177734375] [-0.12357330322265625:0.275390625] [-0.292236328125:0.287109375] [-0.208984375:0.22182617187500001] [-0.1552734375:0.2197265625] [-0.14288330078125:0.2783203125] [-0.26513671875:0.390625] [-0.31477864583333331:0.137786865234375] [-0.18312988281250001:0.248046875] [-0.21630859375:0.29443359375] [-0.22119140625:0.2197265625] [-0.16471354166666666:0.248046875] [-0.157745361328125:0.17716471354166666] [-0.22867838541666666:0.21747589111328125] [-0.2421875:0.1884765625] [-0.1517333984375:0.1865234375] [-0.16231282552083334:0.2158203125] [-0.1552734375:0.31695556640625] [-0.271484375:0.13720703125] [-0.072784423828125:0.3984375] [-0.240234375:0.14075927734374999] [-0.1689453125:0.2314453125] [-0.2177734375:0.169677734375] [-0.26953125:0.177001953125] [-0.18390764508928573:0.227294921875] [-0.21303304036458334:0.365234375] [-0.14143880208333334:0.337890625] [-0.29345703125:0.1163330078125] [-0.134765625:0.490234375] [-0.28499348958333331:0.18098958333333334] [-0.16064453125:0.2138671875] [-0.1767578125:0.396484375] [-0.19856480189732142:0.33984375] [-0.3828125:0.14926825629340279] [-0.25468750000000001:0.15144856770833334] [-0.2041015625:0.25146484375] [-0.32584635416666669:0.057725694444444448] [-0.198974609375:0.1535186767578125] [-0.21875:0.23046875] [-0.241943359375:0.15826416015625] [-0.2724609375:0.1787109375] [-0.13116455078125:0.333984375] [-0.27253417968749999:0.26025390625] [-0.2177734375:0.12744140625] [-0.1607666015625:0.38671875] [-0.21533203125:0.156005859375] [-0.1031494140625:0.25] [-0.0921630859375:0.46875] [-0.2333984375:0.1990966796875] [-0.13135986328124999:0.35546875] [-0.22161865234375:0.2412109375] [-0.358154296875:0.03173828125] [-0.240234375:0.1671142578125] [-0.15887451171875:0.22102050781249999] [-0.2412109375:0.270355224609375] [-0.236328125:0.21523437500000001] [-0.169921875:0.3837890625] [-0.26943359374999998:0.21391601562500001] [-0.318359375:0.1253662109375] [-0.337890625:0.1746826171875] [-0.2470703125:0.134765625] [-0.25813802083333331:0.153564453125] [-0.256103515625:0.4140625] [-0.51953125:0.11017862955729167] [-0.045026506696428568:0.4140625] [-0.359375:0.15317007211538461] [-0.25358072916666669:0.283203125] [-0.16927083333333334:0.40234375] [-0.177459716796875:0.16327868009868421] [-0.310302734375:0.228515625] [-0.22039116753472221:0.23583984375] [-0.2958984375:0.2490234375] [-0.34212239583333331:0.294921875] [-0.117431640625:0.44156901041666669] [-0.11060791015625:0.217803955078125] [-0.150390625:0.23486328125] [-0.26416015625:0.1826171875] [-0.2762451171875:0.1031494140625] [-0.21035156250000001:0.2265625] [-0.18046875000000001:0.19580078125] [-0.213134765625:0.21826171875] [-0.357421875:0.11735992431640625] [-0.1572265625:0.136627197265625] [-0.419921875:0.31640625] [-0.21240234375:0.2265625] [-0.11181640625:0.20833333333333334] [-0.25:0.0853424072265625] [-0.26771240234374999:0.124267578125] [-0.2314453125:0.373046875] [-0.159423828125:0.26171875] [-0.2451171875:0.10754013061523438] [-0.05657958984375:0.31298828125] [-0.32893880208333331:0.314453125] [-0.322265625:0.207763671875] [-0.3359375:0.2119140625] [-0.121337890625:0.23779296875] [-0.15131835937499999:0.275390625] [-0.369140625:0.2890625] [-0.181884765625:0.152801513671875] [-0.2119140625:0.127197265625] [-0.291015625:0.2264862060546875] [-0.24853515625:0.33203125] [-0.333984375:0.16552734375] [-0.32649739583333331:0.1865234375] [-0.265869140625:0.2236328125] [-0.1845703125:0.25146484375] [-0.18780517578125:0.21293131510416666] [-0.27506510416666669:0.1962890625] [-0.25746372767857145:0.2333984375] [-0.296875:0.43359375] [-0.14191783558238635:0.2373046875] [-0.16145833333333334:0.302734375] [-0.209228515625:0.1782073974609375] [-0.251953125:0.2000885009765625] [-0.18115234375:0.2803802490234375] [-0.1708984375:0.16796875] [-0.17618815104166666:0.40234375] [-0.163818359375:0.26435546874999999] [-0.46875:0.096972656249999997] [-0.292724609375:0.19612630208333334] [-0.16389160156249999:0.1748046875] [-0.139892578125:0.2998046875] [-0.21484375:0.28460693359375] [-0.233154296875:0.27734375] [-0.20751953125:0.25244140625] [-0.259765625:0.27392578125] [-0.298828125:0.1153564453125] [-0.0768280029296875:0.349609375] [-0.2109375:0.19677734375] [-0.28515625:0.296875] [-0.1619873046875:0.51171875] [-0.2822265625:0.2041015625] [-0.25563964843749998:0.1715087890625] [-0.22210693359375:0.17000906808035715] [-0.236328125:0.21988932291666666] [-0.400390625:0.1242828369140625] [-0.369140625:0.17399088541666666] [-0.150146484375:0.149169921875] [-0.16748046875:0.3251953125] [-0.140869140625:0.2431640625] [-0.181640625:0.23775227864583334] [-0.18109385172526041:0.28826904296875] [-0.34403228759765625:0.1767578125] [-0.24267578125:0.2177734375] [-0.21516927083333334:0.27685546875] [-0.2122802734375:0.23783620198567709] [-0.17236328125:0.192626953125] [-0.33203125:0.2755126953125] [-0.18837890625000001:0.29296875] [-0.314453125:0.13936941964285715] [-0.22032546997070312:0.15146484374999999] [-0.21435546875:0.26953125] [-0.42578125:0.171142578125] [-0.055826822916666664:0.3681640625] [-0.2861328125:0.06396484375] [-0.298828125:0.2353515625] [-0.2470703125:0.22173563639322916] [-0.2288818359375:0.099884033203125] [-0.1873779296875:0.12919108072916666] [-0.24283854166666666:0.1646999782986111] [-0.17694091796875:0.2109375] [-0.2578125:0.109375] [-0.17698160807291666:0.24423828124999999] [-0.236083984375:0.218994140625] [-0.2576904296875:0.3828125] [-0.157470703125:0.24912109374999999] [-0.11279296875:0.296142578125] [-0.251953125:0.16157226562499999] [-0.1923828125:0.20361328125] [-0.24658203125:0.25] [-0.18994140625:0.265625] [-0.17333984375:0.17982700892857142] [-0.103515625:0.3662109375] [-0.271484375:0.1208767361111111] [-0.12442734662224264:0.19399414062500001] [-0.22539062500000001:0.07403205422794118] [-0.22550455729166666:0.2470703125] [-0.228515625:0.1767578125] [-0.1194000244140625:0.21311732700892858] [-0.490234375:0.078526088169642863] [-0.2215576171875:0.11885209517045454] [-0.34765625:0.2109375] [-0.3125:0.196441650390625] [-0.24609375:0.2734375] [-0.181640625:0.275390625] [-0.20833333333333334:0.138916015625] [-0.3203125:0.2581787109375] [-0.328125:0.13519756610576922] [-0.267578125:0.26513671875] [-0.19110616048177084:0.14764404296875] [-0.19523111979166666:0.41015625] [-0.27850341796875:0.0732421875] [-0.306640625:0.13504536946614584] [-0.21221923828125:0.259765625] [-0.177490234375:0.15087890625] [-0.2578125:0.063256835937500006] [-0.30859375:0.16143798828125] [-0.3271484375:0.18017578125] [-0.12008622661232948:0.28671773274739581] [-0.3046875:0.25667317708333331] [-0.13177490234375:0.1856689453125] [-0.1485595703125:0.2744140625] [-0.3994140625:0.2236328125] [-0.113128662109375:0.20465087890625] [-0.44140625:0.13653564453125] [-0.298828125:0.212890625] [-0.2236328125:0.15771484375] [-0.21484375:0.21354166666666666] [-0.451171875:0.2275390625] [-0.255859375:0.2099609375] [-0.3056640625:0.2890625] [-0.21142578125:0.27734375] [-0.187255859375:0.13090006510416666] [-0.193359375:0.156494140625] [-0.408203125:0.18206787109375] [-0.13289701021634615:0.2890625] [-0.13712565104166666:0.20346679687499999] [-0.11467742919921875:0.39453125] [-0.2763671875:0.25390625] [-0.234375:0.20817057291666666] [-0.260986328125:0.072357177734375] [-0.265625:0.12598419189453125] [-0.3046875:0.20671590169270834] [-0.208984375:0.251953125] [-0.18310546875:0.24697265625000001] [-0.18050130208333334:0.10791015625] [-0.25726318359375:0.115234375] [-0.125732421875:0.19384765625] [-0.13860212053571427:0.281494140625] [-0.079903738839285712:0.31087239583333331] [-0.2236328125:0.40234375] [-0.318359375:0.2392578125] [-0.2734375:0.0445098876953125] [-0.13496616908482142:0.2054443359375] [-0.22591145833333334:0.18202718098958334] [-0.17073567708333334:0.1591796875] [-0.1796875:0.15543619791666666] [-0.2578125:0.15520019531250001] [-0.3193359375:0.16372070312500001] [-0.22242954799107142:0.1948089599609375] [-0.13311958312988281:0.230224609375] [-0.287109375:0.15230305989583334] [-0.12674967447916666:0.3173828125] [-0.20034179687500001:0.17169189453125] [-0.259765625:0.18994140625] [-0.29296875:0.400390625] [-0.255859375:0.142333984375] [-0.2587890625:0.17759486607142858] [-0.11767578125:0.53125] [-0.15185546875:0.310302734375] [-0.233642578125:0.26177978515625] [-0.15232324600219727:0.43359375] [-0.384765625:0.089111328125] [-0.33251953125:0.06951904296875] [-0.26106770833333331:0.2308349609375] [-0.20686848958333334:0.0791015625] [-0.251953125:0.255615234375] [-0.199951171875:0.2451171875] [-0.2822265625:0.1220703125] [-0.1390380859375:0.28971354166666669] [-0.1533203125:0.15665690104166666] [-0.18619791666666666:0.21173095703125] [-0.19026692708333334:0.18033854166666666] [-0.215087890625:0.0657958984375] [-0.165283203125:0.26295689174107145] [-0.302734375:0.1943359375] [-0.142730712890625:0.291015625] [-0.2041015625:0.279296875] [-0.23046875:0.263916015625] [-0.38671875:0.0579833984375] [-0.15155029296875:0.2177734375] [-0.2685546875:0.138427734375] [-0.220947265625:0.138671875] [-0.44921875:0.23079427083333334] [-0.3125:0.1142578125] [-0.15618896484375:0.35546875] [-0.1689453125:0.19699707031249999]

Tree=0
num_leaves=26
num_cat=0
split_feature=187 258 135 56 296 82 146 165 5 19 259 24 297 194 276 277 165 50 209 60 297 2 255 33 156
split_gain=1.5515140083259507 1.327505020087169 1.0704909630710349 1.0132943250706754 0.59348632003923329 0.57557068893685914 0.52060897511350968 0.51006263421558251 0.48437761870917506 0.46275906481641482 0.51210548804745004 0.38115767187593252 0.36901708999374477 0.3504677424205912 0.33804894401829899 0.31432640020879166 0.23806820655766125 0.25500104624200282 0.23526169106683237 0.22972426195533852 0.21580822902185615 0.21548886641666012 0.18571303003454742 0.11690509931417248 0.11056811415239132
threshold=0.041890462239583336 -0.0079302106584821421 -0.020411434336605232 -0.029226938883463536 -0.010412648946297268 0.08971165248325895 -0.011884460449218748 -0.0871197533985925 -0.034825642903645822 -0.072146759951178391 -0.048942715513939944 0.021386524190878813 -0.039201569138911728 0.038526746961805559 -0.059572415474133604 -0.10162244955070404 -0.093439044374408128 -0.02430308948863636 0.005762736002604167 -0.021714613172743053 -0.030781943813648096 0.031001734391353921 -0.038153754340277769 -0.0062168361423732511 -0.029289487808469739
decision_type=2 2 2 2 2 2 2 2 2 2 2 2 2 2 2 2 2 2 2 2 2 2 2 2 2
left_child=2 5 3 6 20 8 9 13 -2 10 -1 -10 15 -4 -12 -11 17 -5 21 -19 -3 -13 -18 -23 -9
right_child=1 4 7 16 -6 -7 -8 24 11 12 14 18 -14 -15 -16 -17 22 19 -20 -21 -22 23 -24 -25 -26
leaf_value=0.49444903085195974 0.48227426857154576 0.51309569688119505 0.49470175814268808 0.48420958639750045 0.49937297023230293 0.51221569757475405 0.48466108191969981 0.47923206137906738 0.48761040367136382 0.48370157985870949 0.50302328339762203 0.48866961083913563 0.50251731926494525 0.47792569729997669 0.51842784009706788 0.49950069823101989 0.48729892319476337 0.50343569765831231 0.5069363220042189 0.48862751579664288 0.52716069634570628 0.49545933386057678 0.47606355443363235 0.5057684251402621 0.46951169722094094
leaf_count=30 28 24 33 36 22 20 26 22 34 34 29 23 37 20 28 20 31 20 32 22 20 22 28 22 25
internal_value=0 0.064256239835614043 -0.034736717421806451 -0.0080561526488414428 0.18566133929275427 0.019986977050137494 0.036615890446210317 -0.12571744329761714 0.00011174961626645386 0.055923006832181071 0.10806991166338839 0.025278798406908668 0.0060682736419059415 -0.05846272640035681 0.16372992271524772 -0.046643366036867653 -0.074575107330524359 -0.03832000618776641 0.056651243908246135 0.014615891833922692 0.25271436670498754 0.022961663834597749 -0.12250558002772978 0.063964377149452703 -0.20155786873495324
internal_count=688 247 441 341 66 181 204 100 161 178 87 133 91 53 57 54 137 78 99 42 44 67 59 44 47
shrinkage=1



feature importances:
Column_297=2
Column_165=2
Column_156=1
Column_296=1
Column_277=1
Column_276=1
Column_259=1
Column_258=1
Column_255=1
Column_209=1
Column_194=1
Column_187=1
Column_2=1
Column_146=1
Column_135=1
Column_82=1
Column_60=1
Column_56=1
Column_50=1
Column_33=1
Column_24=1
Column_19=1
Column_5=1

pandas_categorical:null
